GenomeStart 18289
Neuron 1 1 0.00000000 1 0.00000000 0.00000000 0.00000000 0.00000000
Neuron 2 1 0.00000000 1 0.00000000 0.00000000 0.00000000 0.00000000
Neuron 3 1 0.00000000 1 0.00000000 0.00000000 0.00000000 0.00000000
Neuron 4 1 0.00000000 1 0.00000000 0.00000000 0.00000000 0.00000000
Neuron 5 2 0.00000000 1 0.00000000 0.00000000 0.00000000 0.00000000
Neuron 6 4 1.00000000 1 1.00000000 0.00000000 0.00000000 0.08476873
Neuron 7 4 1.00000000 1 1.00000000 0.00000000 0.00000000 0.05817634
Neuron 8 4 1.00000000 1 1.00000000 0.00000000 0.00000000 -0.06215704
Neuron 10 3 0.50000000 1 1.00000000 0.00000000 0.00000000 0.00000000
Neuron 12 3 0.50000000 1 1.00000000 0.00000000 0.00000000 0.00000000
Neuron 19 3 0.50000000 1 1.00000000 0.00000000 0.00000000 0.00000000
Neuron 25 3 0.75000000 1 1.00000000 0.00000000 0.00000000 0.00000000
Neuron 26 3 0.75000000 1 1.00000000 0.00000000 0.00000000 0.00000000
Neuron 38 3 0.62500000 1 1.00000000 0.00000000 0.00000000 0.00000000
Neuron 42 3 0.25000000 1 1.00000000 0.00000000 0.00000000 0.00000000
Link 1 6 1 0 0.42635931
Link 3 6 3 0 0.19462836
Link 4 6 4 0 -3.60235882
Link 5 6 5 0 -0.24036028
Link 1 7 6 0 -0.18111631
Link 5 7 10 0 -4.04388966
Link 2 8 12 0 0.85757371
Link 3 8 13 0 -3.35871934
Link 4 8 14 0 -2.62862635
Link 5 8 15 0 -2.28918619
Link 1 12 26 0 0.44314276
Link 4 19 52 0 0.67085847
Link 19 7 53 0 -0.94373216
Link 8 8 59 1 -0.85163601
Link 25 7 81 0 -1.24089593
Link 12 26 83 0 0.41804084
Link 26 7 84 0 -1.24420971
Link 10 38 171 0 -0.69835984
Link 2 38 184 0 -0.79963883
Link 10 12 188 0 -0.08340206
Link 3 42 198 0 -0.22012219
Link 42 10 199 0 -0.02675261
Link 38 10 221 1 0.59453879
Link 2 25 334 0 -0.24842836
Link 4 38 354 0 0.37184796
Link 3 19 374 0 -0.13845589
Link 42 26 380 0 0.51184847
Link 3 25 419 0 0.41084567
Link 12 19 469 0 -0.16550623
GenomeEnd

